%YAML:1.0
my_svm: !!opencv-ml-svm
   svm_type: EPS_SVR
   kernel: { type:RBF, gamma:1.0000000000000001e-001 }
   C: 5.
   p: 1.0000000000000000e-003
   term_criteria: { epsilon:1.1920928955078125e-007, iterations:1000 }
   var_all: 3
   var_count: 3
   sv_total: 9
   support_vectors:
      - [ 2.01084688e-001, 1.26257837e-001, 6.34226799e-001 ]
      - [ 5.10387957e-001, 3.55790138e-001, 9.17775035e-001 ]
      - [ 1.14261299e-001, 1.37906939e-001, 6.80997670e-001 ]
      - [ 5.26720524e-001, 4.46045160e-001, 9.58055139e-001 ]
      - [ 2.98889205e-002, 2.30249912e-001, 6.06927752e-001 ]
      - [ 2.92531431e-001, 2.14364618e-001, 1. ]
      - [ 9.65026468e-002, 2.14028940e-001, 6.22997940e-001 ]
      - [ 5.28855324e-001, 4.56832111e-001, 1. ]
      - [ 0., 0., 0. ]
   decision_functions:
      -
         sv_count: 9
         rho: -4.3946110446522579e-002
         alpha: [ 5., -5., -5., -2.5363634441252212e+000,
             -1.7431099377481287e+000, 1.2433408781774569e+000, 5., 5.,
             -1.9638674963041087e+000 ]
