%YAML:1.0
my_svm: !!opencv-ml-svm
   svm_type: EPS_SVR
   kernel: { type:RBF, gamma:1.0000000000000001e-001 }
   C: 5.
   p: 1.0000000000000000e-003
   term_criteria: { epsilon:1.1920928955078125e-007, iterations:1000 }
   var_all: 6
   var_count: 6
   sv_total: 9
   support_vectors:
      - [ 2.01084688e-001, 1.26257837e-001, 6.34226799e-001,
          1.56592615e-002, 4.15891670e-002, 4.68183517e-001 ]
      - [ 5.10387957e-001, 3.55790138e-001, 9.17775035e-001,
          6.67062581e-001, 6.03358746e-002, 4.50422764e-001 ]
      - [ 1.14261299e-001, 1.37906939e-001, 6.80997670e-001,
          1.76120549e-002, 4.33479659e-002, 6.29020691e-001 ]
      - [ 5.26720524e-001, 4.46045160e-001, 9.58055139e-001,
          6.48232460e-001, 8.22948068e-002, 5.87175131e-001 ]
      - [ 2.98889205e-002, 2.30249912e-001, 6.06927752e-001,
          8.56781658e-003, 2.03987695e-002, 5.94558418e-001 ]
      - [ 2.92531431e-001, 2.14364618e-001, 1., 1., 2.44045779e-002,
          7.11973727e-001 ]
      - [ 9.65026468e-002, 2.14028940e-001, 6.22997940e-001,
          6.16615750e-002, 7.23193884e-002, 5.93202353e-001 ]
      - [ 5.28855324e-001, 4.56832111e-001, 1., 1., 7.30772540e-002,
          5.47981441e-001 ]
      - [ 0., 0., 0., 0., 0., 0. ]
   decision_functions:
      -
         sv_count: 9
         rho: -1.2624252950566045e-001
         alpha: [ 5., -5., -5., -1.1147949217934467e+000,
             -1.2902587575740569e+000, -9.0660428556514761e-001, 5., 5.,
             -1.6883420350673488e+000 ]
