%YAML:1.0
my_svm: !!opencv-ml-svm
   svm_type: EPS_SVR
   kernel: { type:RBF, gamma:1.0000000000000001e-001 }
   C: 5.
   p: 1.0000000000000000e-003
   term_criteria: { epsilon:1.1920928955078125e-007, iterations:1000 }
   var_all: 3
   var_count: 3
   sv_total: 9
   support_vectors:
      - [ 1.43452376e-001, 1.59625696e+003, 6.73543692e-001 ]
      - [ 3.64107132e-001, 4.49819580e+003, 9.74669576e-001 ]
      - [ 8.75595212e-002, 1.70938220e+003, 6.92401946e-001 ]
      - [ 4.03630942e-001, 5.52881250e+003, 9.74099100e-001 ]
      - [ 2.43452378e-002, 3.30431030e+003, 6.48936152e-001 ]
      - [ 2.38273814e-001, 3.07634082e+003, 1.06921482e+000 ]
      - [ 6.61904737e-002, 2.29665894e+003, 6.19612098e-001 ]
      - [ 3.62738103e-001, 4.90208252e+003, 9.94565189e-001 ]
      - [ 0., 0., 0. ]
   decision_functions:
      -
         sv_count: 9
         rho: -1.6482267551289662e-001
         alpha: [ 1.1601500201824821e-002, -1.3706791092175985e-002,
             -4.1414179497223813e-002, 3.5615281652193506e-002,
             -2.9574175919871756e-002, 4.0939240489620721e-002,
             4.8280353300797288e-002, 1.1208147799276047e-001,
             -1.6382270712792524e-001 ]
