%YAML:1.0
my_svm: !!opencv-ml-svm
   svm_type: EPS_SVR
   kernel: { type:RBF, gamma:1.0000000000000001e-001 }
   C: 5.
   p: 1.0000000000000000e-003
   term_criteria: { epsilon:1.1920928955078125e-007, iterations:1000 }
   var_all: 11
   var_count: 11
   sv_total: 9
   support_vectors:
      - [ 2.01084688e-001, 1.26257837e-001, 6.34226799e-001,
          1.56592615e-002, 4.15891670e-002, 4.68183517e-001,
          1.75288081e-001, 8.85461330e-001, 8.86865795e-001, 1.,
          5.56045413e-001 ]
      - [ 5.10387957e-001, 3.55790138e-001, 9.17775035e-001,
          6.67062581e-001, 6.03358746e-002, 4.50422764e-001,
          1.79782167e-001, 8.41748536e-001, 7.99517334e-001,
          8.14877570e-001, 6.15733743e-001 ]
      - [ 1.14261299e-001, 1.37906939e-001, 6.80997670e-001,
          1.76120549e-002, 4.33479659e-002, 6.29020691e-001,
          3.21420133e-001, 8.50512266e-001, 8.70352089e-001,
          8.22202146e-001, 6.43863976e-001 ]
      - [ 5.26720524e-001, 4.46045160e-001, 9.58055139e-001,
          6.48232460e-001, 8.22948068e-002, 5.87175131e-001,
          3.17594081e-001, 8.71127009e-001, 7.58144498e-001,
          7.52466917e-001, 6.55177891e-001 ]
      - [ 2.98889205e-002, 2.30249912e-001, 6.06927752e-001,
          8.56781658e-003, 2.03987695e-002, 5.94558418e-001, 1.,
          8.99622083e-001, 8.21920574e-001, 7.94278681e-001,
          6.04398608e-001 ]
      - [ 2.92531431e-001, 2.14364618e-001, 1., 1., 2.44045779e-002,
          7.11973727e-001, 7.40515828e-001, 8.36206913e-001,
          8.44117343e-001, 8.04586947e-001, 7.52136827e-001 ]
      - [ 9.65026468e-002, 2.14028940e-001, 6.22997940e-001,
          6.16615750e-002, 7.23193884e-002, 5.93202353e-001,
          6.00524902e-001, 9.04945791e-001, 8.61490071e-001,
          9.12535727e-001, 5.60385227e-001 ]
      - [ 5.28855324e-001, 4.56832111e-001, 1., 1., 7.30772540e-002,
          5.47981441e-001, 6.00524902e-001, 9.04945791e-001,
          7.55069137e-001, 8.17231536e-001, 5.55524886e-001 ]
      - [ 0., 0., 0., 0., 0., 0., 0., 0., 0., 0., 0. ]
   decision_functions:
      -
         sv_count: 9
         rho: -1.4538349363656344e-001
         alpha: [ 2.8029640833896856e+000, -5., -3.6798486346808654e+000,
             1.5630767016343563e+000, -3.1664956339558157e+000,
             -8.6124418354045473e-001, 5., 3.4137887428984288e+000,
             -7.2241075745337988e-002 ]
