%YAML:1.0
my_svm: !!opencv-ml-svm
   svm_type: EPS_SVR
   kernel: { type:RBF, gamma:1.0000000000000001e-001 }
   C: 5.
   p: 1.0000000000000000e-003
   term_criteria: { epsilon:1.1920928955078125e-007, iterations:1000 }
   var_all: 11
   var_count: 11
   sv_total: 61
   support_vectors:
      - [ 2.01084688e-001, 1.26257837e-001, 6.34226799e-001,
          1.56592615e-002, 4.15891670e-002, 4.68183517e-001,
          1.75288081e-001, 8.85461330e-001, 8.86865795e-001, 1.,
          5.56045413e-001 ]
      - [ 5.10387957e-001, 3.55790138e-001, 9.17775035e-001,
          6.67062581e-001, 6.03358746e-002, 4.50422764e-001,
          1.79782167e-001, 8.41748536e-001, 7.99517334e-001,
          8.14877570e-001, 6.15733743e-001 ]
      - [ 8.41218174e-001, 7.60134518e-001, 8.24420094e-001,
          3.44640285e-001, 6.23743653e-001, 4.60601777e-001,
          5.68220317e-001, 7.58749485e-001, 5.94812334e-001,
          6.48395956e-001, 5.70984781e-001 ]
      - [ 8.93533587e-001, 8.15732658e-001, 8.88983130e-001,
          2.13123322e-001, 2.73051083e-001, 5.13780713e-001,
          3.29910338e-001, 1., 8.47556889e-001, 7.56091833e-001,
          8.75234783e-001 ]
      - [ 5.09219885e-001, 3.53501350e-001, 8.84239078e-001,
          2.59862661e-001, 2.09649298e-002, 4.29282546e-001,
          3.41975540e-001, 9.30695832e-001, 8.68742645e-001,
          7.75083244e-001, 7.14610457e-001 ]
      - [ 1.69962451e-001, 1.25424922e-001, 6.49397790e-001,
          1.10590674e-001, 5.39446250e-002, 7.17089474e-001,
          3.46195757e-001, 9.08147752e-001, 7.69633174e-001,
          6.82463646e-001, 5.65121770e-001 ]
      - [ 4.54901963e-001, 2.23859191e-001, 8.91540289e-001,
          7.18074515e-002, 2.98798494e-002, 6.48872554e-001,
          7.00605392e-001, 8.87536287e-001, 7.76676714e-001,
          8.32115948e-001, 6.99430645e-001 ]
      - [ 9.33833957e-001, 9.34492052e-001, 7.55626440e-001,
          1.36718690e-001, 9.14077461e-001, 1., 1.79782167e-001,
          8.41748536e-001, 5.11832297e-001, 5.84818542e-001,
          5.64316928e-001 ]
      - [ 9.58614945e-001, 9.28334773e-001, 8.18805933e-001,
          9.28884372e-002, 1., 8.30969632e-001, 3.59505236e-001,
          8.42163503e-001, 8.12952340e-001, 4.66779649e-001,
          9.18328285e-001 ]
      - [ 4.14518148e-001, 3.26058000e-001, 1., 8.37535620e-001,
          4.77400832e-002, 8.47600639e-001, 7.00605392e-001,
          8.87536287e-001, 1., 8.36615443e-001, 1. ]
      - [ 5.47851503e-001, 2.30131805e-001, 8.52553964e-001,
          4.17117774e-002, 4.40150164e-002, 7.31104493e-001,
          5.00636399e-001, 9.77313578e-001, 7.41918683e-001,
          5.70151329e-001, 6.54737949e-001 ]
      - [ 5.50938666e-001, 2.57327527e-001, 7.74226487e-001,
          2.85231918e-002, 3.78679112e-002, 5.91488004e-001,
          6.75322175e-001, 9.55180526e-001, 6.88339710e-001,
          5.93291640e-001, 6.67203009e-001 ]
      - [ 1., 1., 6.84819460e-001, 8.08598548e-002, 5.21430194e-001,
          8.63628745e-001, 0., 9.30142462e-001, 4.61016148e-001,
          6.74516439e-001, 5.47692180e-001 ]
      - [ 9.67208982e-001, 9.15417910e-001, 6.72590554e-001,
          1.87247634e-001, 4.82851088e-001, 7.59409547e-001,
          8.43786120e-001, 9.56425488e-001, 6.21353567e-001,
          4.23946708e-001, 6.98702693e-001 ]
      - [ 7.39090502e-001, 5.28751850e-001, 8.54898036e-001,
          9.61343348e-002, 1.13968559e-001, 6.58348620e-001,
          3.33836377e-001, 9.76621926e-001, 6.99713230e-001,
          5.14930189e-001, 6.95601285e-001 ]
      - [ 1.15644559e-001, 1.38443351e-001, 6.35598063e-001,
          1.14115365e-002, 4.99110483e-002, 5.09543180e-001,
          7.37413108e-001, 8.01217318e-001, 8.45747888e-001,
          7.74907947e-001, 5.40595293e-001 ]
      - [ 4.70671684e-001, 3.38974804e-001, 9.10239220e-001, 1.,
          7.91863650e-002, 4.28718209e-001, 3.89449209e-001,
          7.17664957e-001, 7.26515174e-001, 6.34371519e-001,
          5.96046805e-001 ]
      - [ 8.17688763e-001, 6.69384539e-001, 8.37114334e-001,
          2.59182215e-001, 4.80998904e-001, 5.25942028e-001, 1.,
          6.81283712e-001, 5.97265184e-001, 5.80494344e-001,
          5.75304866e-001 ]
      - [ 7.13391721e-001, 5.09222627e-001, 8.59338641e-001,
          3.32714379e-001, 9.12477374e-002, 4.24147397e-001,
          7.57304966e-001, 7.59717822e-001, 8.27239990e-001,
          8.54029119e-001, 8.44332576e-001 ]
      - [ 4.23612863e-001, 3.17645609e-001, 9.21156645e-001,
          1.86275691e-001, 2.01252270e-002, 5.22717714e-001,
          7.37413108e-001, 8.01217318e-001, 8.74521375e-001,
          7.31958151e-001, 7.57923245e-001 ]
      - [ 8.96120146e-002, 1.38132617e-001, 6.02596104e-001,
          1.09978378e-001, 5.93047068e-002, 7.33001053e-001,
          3.78928751e-001, 7.58057833e-001, 7.51883149e-001,
          6.48512840e-001, 5.56926787e-001 ]
      - [ 4.73425120e-001, 2.85094172e-001, 9.44724262e-001,
          1.24171764e-001, 3.03590391e-002, 6.48297191e-001,
          7.57304966e-001, 7.59717822e-001, 7.19761074e-001,
          6.53830409e-001, 6.91451430e-001 ]
      - [ 8.30788493e-001, 7.62341201e-001, 9.19117808e-001,
          1.83464512e-001, 6.29463971e-001, 7.93572485e-001,
          7.47226834e-001, 7.80329227e-001, 5.55563390e-001,
          5.54958224e-001, 6.69779539e-001 ]
      - [ 9.28911150e-001, 8.82702053e-001, 7.93446660e-001,
          7.18596503e-002, 8.57893407e-001, 6.67512238e-001,
          3.89449209e-001, 7.17664957e-001, 6.83049560e-001,
          3.95780981e-001, 7.97154903e-001 ]
      - [ 3.20400506e-001, 2.03980610e-001, 8.44900250e-001,
          5.85893452e-001, 3.58538963e-002, 8.36023390e-001,
          8.00488174e-001, 6.80038750e-001, 7.41213202e-001,
          5.43797135e-001, 6.78894162e-001 ]
      - [ 3.71297449e-001, 1.90701485e-001, 8.47464144e-001,
          4.38666753e-002, 3.36759314e-002, 5.50163567e-001,
          4.06372517e-001, 6.59150660e-001, 6.41921222e-001,
          4.50651556e-001, 5.84925473e-001 ]
      - [ 6.67501032e-001, 4.37236995e-001, 8.20742249e-001,
          3.43015194e-002, 5.53172454e-002, 6.62887514e-001,
          3.64172071e-001, 8.20722103e-001, 5.60694158e-001,
          5.22292972e-001, 5.70086539e-001 ]
      - [ 9.55444276e-001, 8.00634265e-001, 7.54508674e-001,
          5.88460788e-002, 2.34722510e-001, 6.08083844e-001,
          3.84117007e-001, 7.37723053e-001, 4.46239114e-001,
          4.43756223e-001, 5.48477411e-001 ]
      - [ 9.39424276e-001, 8.71654153e-001, 7.03095257e-001,
          1.54894158e-001, 5.94506800e-001, 6.13787711e-001,
          7.57304966e-001, 7.59717822e-001, 6.60128832e-001,
          3.86314511e-001, 7.59968221e-001 ]
      - [ 5.30913651e-001, 3.09619427e-001, 9.34346199e-001,
          3.91249299e-001, 5.95883951e-002, 7.40836918e-001,
          7.47226834e-001, 7.80329227e-001, 8.02470565e-001,
          5.37077069e-001, 7.46081948e-001 ]
      - [ 1.14261299e-001, 1.37906939e-001, 6.80997670e-001,
          1.76120549e-002, 4.33479659e-002, 6.29020691e-001,
          3.21420133e-001, 8.50512266e-001, 8.70352089e-001,
          8.22202146e-001, 6.43863976e-001 ]
      - [ 5.26720524e-001, 4.46045160e-001, 9.58055139e-001,
          6.48232460e-001, 8.22948068e-002, 5.87175131e-001,
          3.17594081e-001, 8.71127009e-001, 7.58144498e-001,
          7.52466917e-001, 6.55177891e-001 ]
      - [ 8.38667095e-001, 8.69869292e-001, 8.40357423e-001,
          3.82403910e-001, 7.71110654e-001, 5.19232929e-001,
          9.30291235e-001, 9.14084673e-001, 6.30240142e-001,
          5.98255098e-001, 6.11109495e-001 ]
      - [ 7.51281679e-001, 6.79517984e-001, 9.86992538e-001,
          6.71598315e-001, 1.56098694e-001, 4.64459777e-001,
          2.96422929e-001, 1., 8.52002561e-001, 8.26052964e-001,
          9.82292473e-001 ]
      - [ 4.31412160e-001, 3.40590566e-001, 9.93870258e-001,
          3.86716753e-001, 2.77154017e-002, 1., 3.17594081e-001,
          8.71127009e-001, 9.69772935e-001, 7.84235835e-001,
          9.20866132e-001 ]
      - [ 1.58381239e-001, 1.12286203e-001, 7.09941983e-001,
          3.75033468e-002, 3.96876074e-002, 7.61117101e-001, 0.,
          7.70398736e-001, 9.42596674e-001, 7.73826718e-001,
          6.97132528e-001 ]
      - [ 4.23178494e-001, 2.59958029e-001, 9.86695290e-001,
          2.32164249e-001, 5.86971343e-002, 7.30077088e-001,
          7.01921225e-001, 7.13492155e-001, 8.68362308e-001,
          6.20998800e-001, 7.97940135e-001 ]
      - [ 8.58086050e-001, 8.78033578e-001, 8.53061199e-001,
          2.49767274e-001, 7.88641751e-001, 7.46267855e-001,
          3.46463144e-001, 7.32008398e-001, 5.84450245e-001,
          4.73586053e-001, 6.90872252e-001 ]
      - [ 8.64455521e-001, 9.46573853e-001, 8.06801498e-001,
          4.64910984e-001, 1., 6.95046067e-001, 0., 7.31884956e-001,
          8.09504688e-001, 5.26654661e-001, 8.74208868e-001 ]
      - [ 4.75920469e-001, 3.56654078e-001, 9.67137277e-001,
          4.83531624e-001, 6.47981763e-002, 7.18960524e-001,
          3.37692887e-001, 7.70522177e-001, 1., 6.16365850e-001, 1. ]
      - [ 3.33462805e-001, 2.33042523e-001, 8.89066160e-001,
          3.48983123e-003, 3.98848616e-002, 6.63657725e-001, 0.,
          7.70398736e-001, 8.22477162e-001, 6.85499370e-001,
          6.41651690e-001 ]
      - [ 6.38340831e-001, 4.51176256e-001, 7.97935545e-001,
          9.35150534e-002, 9.25773606e-002, 6.63508832e-001,
          3.51021349e-001, 7.13121831e-001, 7.01272786e-001,
          4.84837532e-001, 6.63181126e-001 ]
      - [ 9.56812203e-001, 9.66704071e-001, 6.24951005e-001,
          1.55924186e-001, 4.34763432e-001, 7.17620254e-001, 0.,
          7.31884956e-001, 5.27164221e-001, 5.20637810e-001,
          5.83871305e-001 ]
      - [ 1., 1., 6.62450016e-001, 3.32574457e-001, 8.03261101e-001,
          7.48990536e-001, 0., 6.94358706e-001, 6.83683395e-001,
          4.71239477e-001, 6.80659473e-001 ]
      - [ 5.44663668e-001, 3.79121661e-001, 8.97470593e-001,
          3.20338547e-001, 8.17434266e-002, 6.62431538e-001,
          3.37692887e-001, 7.70522177e-001, 9.23957527e-001,
          5.09867609e-001, 8.27148795e-001 ]
      - [ 5.38294241e-002, 2.14446962e-001, 6.39050663e-001,
          5.27098365e-002, 4.62891422e-002, 7.74800241e-001, 0.,
          8.30020964e-001, 8.32286954e-001, 8.72021675e-001,
          6.10194325e-001 ]
      - [ 5.20817161e-001, 4.50696766e-001, 9.73041534e-001, 1.,
          4.52371202e-002, 6.28044248e-001, 1., 7.91136920e-001,
          6.33559465e-001, 7.53249109e-001, 5.77884793e-001 ]
      - [ 7.58505523e-001, 6.98639035e-001, 8.73989403e-001,
          4.19625044e-001, 1.65674120e-001, 5.42207003e-001, 0.,
          7.90025949e-001, 6.10677898e-001, 1., 5.71265519e-001 ]
      - [ 8.01537991e-001, 8.16637337e-001, 8.60588253e-001,
          7.27047741e-001, 3.66934478e-001, 5.16053855e-001, 0.,
          8.30020964e-001, 7.63749838e-001, 6.69675112e-001,
          8.60579550e-001 ]
      - [ 3.91952783e-001, 3.39096427e-001, 1., 4.23365176e-001,
          2.33296100e-002, 7.18390048e-001, 6.58610940e-001,
          8.10393751e-001, 9.34427321e-001, 7.46329725e-001,
          9.01907086e-001 ]
      - [ 9.12692249e-002, 1.50478363e-001, 5.98780870e-001,
          4.25210483e-002, 2.57147662e-002, 7.46167004e-001,
          3.46463144e-001, 7.32008398e-001, 7.89305687e-001,
          6.64861619e-001, 5.70972145e-001 ]
      - [ 3.45657915e-001, 2.69907564e-001, 9.40138400e-001,
          3.43258113e-001, 4.08026837e-002, 6.97080612e-001, 0.,
          8.50388825e-001, 7.75770903e-001, 9.62093890e-001,
          6.73564672e-001 ]
      - [ 7.73030937e-001, 7.57738292e-001, 9.83529389e-001,
          4.22283471e-001, 6.30797327e-001, 9.50255454e-001, 0.,
          8.09899986e-001, 5.93876541e-001, 6.41937435e-001,
          6.15362823e-001 ]
      - [ 8.38434041e-001, 9.22094643e-001, 8.15609753e-001,
          5.77381015e-001, 8.07826042e-001, 7.46133327e-001,
          3.37692887e-001, 7.70522177e-001, 7.73087442e-001,
          4.55776185e-001, 8.38796794e-001 ]
      - [ 3.23442608e-001, 2.39836231e-001, 9.33442295e-001,
          5.94788730e-001, 3.58375683e-002, 7.00426579e-001,
          3.33472162e-001, 7.90149391e-001, 9.88346040e-001,
          8.21600497e-001, 8.84613395e-001 ]
      - [ 3.23054224e-001, 2.16475531e-001, 8.23898971e-001,
          3.84956673e-002, 3.36498953e-002, 6.77411675e-001,
          3.51021349e-001, 7.13121831e-001, 8.01883399e-001,
          5.61552346e-001, 6.52659357e-001 ]
      - [ 5.12894213e-001, 3.86913151e-001, 8.21764708e-001,
          5.47468364e-002, 5.64530678e-002, 6.89372540e-001,
          3.51021349e-001, 7.13121831e-001, 6.94425881e-001,
          5.96149206e-001, 6.17567837e-001 ]
      - [ 9.42209125e-001, 9.34211195e-001, 6.64379060e-001,
          1.14791140e-001, 2.44750649e-001, 7.33155251e-001, 0.,
          7.51018405e-001, 4.81290162e-001, 5.93321323e-001,
          5.00787258e-001 ]
      - [ 9.54404235e-001, 8.87176514e-001, 7.13194668e-001,
          3.54582667e-001, 2.74732739e-001, 7.80512214e-001,
          6.42746985e-001, 8.50882590e-001, 6.61886871e-001,
          5.08664250e-001, 6.48813725e-001 ]
      - [ 5.96784234e-001, 4.28636760e-001, 8.58636796e-001,
          2.68051565e-001, 5.82333952e-002, 7.03444719e-001,
          6.50582314e-001, 8.30514729e-001, 8.38786483e-001,
          5.87424815e-001, 7.43535459e-001 ]
      - [ 0., 0., 0., 0., 0., 0., 0., 0., 0., 0., 0. ]
   decision_functions:
      -
         sv_count: 61
         rho: -1.1477760063317703e+000
         alpha: [ 5., -4.4734688687045798e+000, -5., -5., 5., 5., 5., 5.,
             5., 8.7221565117199173e-001, -5., -4.5521586464445125e+000,
             5., 5., 3.7183191466038061e+000, -4.6631859186330216e+000,
             4.6499336981613917e+000, -5., 2.8702398136823395e+000, 5.,
             5., 5., -5., 5., 5., 5., -5., 5., 5.,
             4.6235308013140619e+000, -5., -3.3167979889728536e+000, -5.,
             -5., -5., 5., -5., 5., -2.6251722755881528e+000, -5., -5.,
             -5., 5., -5., -5., -5., -1.8998480205886961e+000, 5.,
             7.6715466243738861e-001, 5., -5., 5., -5., 5., 5.,
             7.9525984895223367e-001, -5., -5., -5., -5.,
             -1.7660219033913873e+000 ]
